15 100
silent -0.00054096937 0.00023816715 0.0051021995 0.009006135 -0.009300297 -0.0071164677 0.0064598355 0.00897975 -0.0050193104 -0.0037623234 0.0073800264 -0.0015330206 -0.0045433184 0.0065578683 -0.004862911 -0.001817435 0.0028776203 0.0009981464 -0.008280853 -0.009456136 0.0073130513 0.0050611165 0.0067697237 0.0007680518 0.0063493964 -0.003403032 -0.00094805425 0.0057731112 -0.0075262673 -0.0039340584 -0.007505744 -0.0009285571 0.009542602 -0.0073249387 -0.002325071 -0.0019412229 0.008077628 -0.0059301443 4.4383218e-05 -0.0047524283 -0.009602784 0.0050010644 -0.008770156 -0.004384546 -3.431853e-05 -0.00030049618 -0.007657594 0.009613245 0.004982054 0.009229672 -0.008153839 0.0044951704 -0.0041342853 0.00082299445 0.008498835 -0.004468288 0.004511762 -0.0067935865 -0.0035477346 0.009396493 -0.0015808161 0.00031599196 -0.0041384036 -0.007684123 -0.0015134802 0.0024720856 -0.00087977306 0.005536616 -0.0027453955 0.0022682755 0.0054518464 0.008352847 -0.001456623 -0.0092013 0.0043750172 0.00057682244 0.0074403184 -0.00080875977 -0.0026344808 -0.008758771 -0.000863235 0.0028255943 0.005407263 0.0070528826 -0.005711897 0.0018537375 0.0060960655 -0.0048010536 -0.0031143127 0.0067949467 0.001636128 0.00018571544 0.003478543 0.00021305577 0.009619703 0.0050555817 -0.00890786 -0.0070408345 0.00089970743 0.006396157
cartoons -0.00861845 0.0036671616 0.0051898044 0.0057472135 0.0074664596 -0.006164609 0.0011158695 0.0060492773 -0.0028496408 -0.006178041 -0.00041464422 -0.00836607 -0.005609587 0.007104354 0.0033476974 0.00721605 0.00680286 0.007533665 -0.003795091 -0.0005745756 0.0023441939 -0.004522464 0.008400739 -0.009857156 0.006754373 0.0029144222 -0.0049363314 0.0044020643 -0.0017484771 0.006719362 0.0099704815 -0.00436354 -0.0006069362 -0.0057112863 0.00384671 0.002786889 0.006886082 0.006100636 0.009533102 0.009269056 0.00791152 -0.0070008845 -0.009157189 -0.0003547083 -0.0030881038 0.007893527 0.0059372834 -0.0015489054 0.0015180962 0.001788286 0.007819598 -0.009520933 -0.00019049925 0.0034673724 -0.0009570659 0.008381712 0.00900852 0.006531054 -0.00072209584 0.007701953 -0.008519383 0.0032014179 -0.0046314592 -0.0050883284 0.0035921268 0.0053799194 0.007773183 -0.005750724 0.007418062 0.0066212425 -0.003712386 -0.008738226 0.005445729 0.0065140906 -0.00078627904 -0.006707234 -0.0070887567 -0.0024848222 0.005146658 -0.0036738517 -0.009376176 0.0038171334 0.0048745694 -0.0064362 0.0012120053 -0.0020895856 3.464119e-05 -0.009878901 0.0026896647 -0.004752857 0.0010922626 -0.0015782571 0.002185632 -0.007883857 -0.0027068828 0.0026609655 0.005346463 -0.0023988523 -0.009510642 0.0045067184
jerry 9.51531e-05 0.0030778407 -0.006808413 -0.0013761004 0.0076668994 0.0073472895 -0.0036636193 0.0026553473 -0.008333639 0.006194524 -0.004637005 -0.0031639917 0.009304741 0.0008728597 0.0074871974 -0.006082588 0.0051715616 0.009930679 -0.008462092 -0.0051629427 -0.0070702564 -0.004872806 -0.0037513643 -0.008533849 0.007940755 -0.0048372713 0.008419423 0.0052739396 -0.00656354 0.0039729965 0.005478405 -0.007425301 -0.007406935 -0.0024930132 -0.008623737 -0.0015809676 -0.0004075314 0.003296635 0.0014290937 -0.00088175165 -0.00557798 0.0017164951 -0.0009107988 0.0068047917 0.0039868597 0.004520907 0.001431919 -0.0027071028 -0.0043627964 -0.0010357446 0.001438218 -0.0026579038 -0.0070633166 -0.007813615 -0.009141288 -0.0059415563 -0.0018616018 -0.0043353057 -0.0064653163 -0.0037242428 0.0042984467 -0.0037516102 0.008392577 0.0015375947 -0.0072508887 0.009449603 0.007634724 0.0055110785 -0.0068672555 0.0058200527 0.0040101632 0.005205148 0.0042609638 0.0019538444 -0.0031662006 0.008365836 0.009617462 0.0038023377 -0.0028333762 -4.042164e-06 0.001207655 -0.008465817 -0.008228735 -0.00022920262 0.0012268163 -0.0057635405 -0.00470833 -0.0073398775 0.008326856 0.000116947595 -0.0045007514 0.0056982706 0.0091744475 -0.0041025453 0.007977416 0.0053699748 0.0058946786 0.000501271 0.008218841 -0.0070217364
tom -0.008235798 0.009302774 -0.00019363315 -0.0019683263 0.0046040663 -0.0040980093 0.0027506037 0.0069519314 0.006052833 -0.0075210743 0.009387071 0.0046706237 0.0039597116 -0.006240826 0.0084591145 -0.002158567 0.008834032 -0.0053556217 -0.008133545 0.00680239 0.0016651325 -0.0022107172 0.009535603 0.009491061 -0.009784727 0.0025062456 0.00615077 0.0038765706 0.002019366 0.0004400058 0.00068149314 -0.0038220538 -0.0071414732 -0.0020975962 0.0039227232 0.008821235 0.009256204 -0.0059805578 -0.009412414 0.009757125 0.0034387088 0.005153396 0.0062779575 -0.0027987233 0.0073271343 0.0028307922 0.0028724927 -0.0023892215 -0.0031322946 -0.0023692292 0.00428075 5.8429243e-05 -0.009581139 -0.009664396 -0.006166852 -0.00013540917 0.0019940033 0.009424302 0.0055764765 -0.004299094 0.00028095086 0.004955237 0.0077105165 -0.001145373 0.004314743 -0.005797331 -0.0007989008 0.008108218 -0.00237718 -0.009664813 0.0057770885 -0.0039121932 -0.00121768 0.009995537 -0.0022497878 -0.00475061 -0.0053292015 0.0069918437 -0.0057107382 0.0021111378 -0.005258982 0.006118964 0.004351 0.0026049293 -0.0014946954 -0.0027597353 0.009002136 0.0052108997 -0.0021629436 -0.009469488 -0.0074178246 -0.0010654642 -0.00080336514 -0.0025660023 0.009692114 -0.00046081562 0.0058852555 -0.0074591413 -0.0025079546 -0.005549569
effects -0.007140644 0.0012391679 -0.0071755373 -0.0022437535 0.0037144178 0.0058349767 0.0012136403 0.0021143488 -0.0041339253 0.007216188 -0.0063122176 0.0046474906 -0.00823941 0.0020424488 -0.004989602 -0.0042592194 -0.0031022623 0.005667468 0.005797802 -0.005007714 0.0007670052 -0.008509955 0.007844652 0.0092622265 -0.0027554552 0.0008044813 0.0007382609 0.0054832185 -0.008622381 0.00060006167 0.0068874597 0.0022346468 0.0011240456 -0.009346721 0.008485309 -0.0062636677 -0.0029996573 0.0034939614 -0.00077931304 0.0014032671 0.0018060483 -0.006855303 -0.009743627 0.0090486985 0.0062113213 -0.0069186673 0.0033996955 0.00020005596 0.004761259 -0.0071261693 0.004031321 0.004328037 0.00997756 -0.00447115 -0.0014134934 -0.0073254593 -0.009707941 -0.00910265 -0.0010377081 -0.0065168194 0.0048637427 -0.0061798105 0.0025334652 0.00073756813 -0.003398946 -0.00095926324 0.009986727 0.009162268 -0.0044845296 0.009083337 -0.005648236 0.005954847 -0.0030898198 0.0034475157 0.0030265779 0.006911917 -0.0023760358 0.008791494 0.0075992 -0.009560927 -0.008016781 -0.007654644 0.0029184823 -0.0028023138 -0.006939606 -0.008155985 0.008328107 0.0019941197 -0.009337829 -0.004794993 0.003151841 -0.0047160476 0.005269866 -0.0042400267 0.0026544377 -0.0080515845 0.0062242826 0.0048054545 0.0007881297 0.00301743
sound -0.008722347 0.0021345608 -0.000875112 -0.009309437 -0.009426735 -0.0014121946 0.004439324 0.0037100087 -0.0065067904 -0.006875883 -0.0050008385 -0.0022826425 -0.0072638984 -0.009601289 -0.002747989 -0.008372906 -0.006040698 -0.0056722886 -0.0023472 -0.001721614 -0.008959729 -0.00074247096 0.008160614 0.007688524 -0.007215299 -0.0036731218 0.00310897 -0.009561783 0.0014704539 0.0065267333 0.0057493616 -0.008765748 -0.0045195166 -0.008151185 4.2682896e-05 0.00926071 0.0059691463 0.0050668665 0.005054978 -0.0032509353 0.009554682 -0.0073646256 -0.0072714486 -0.0022621509 -0.0007724796 -0.003217588 -0.0005872161 0.0074883387 -0.0006916928 -0.001619332 0.0027489336 -0.008367105 0.007872584 0.008539791 -0.009597189 0.0024422742 0.009903848 -0.007668671 -0.0069757523 -0.0077438015 0.00840611 -0.0006845162 0.00914844 -0.008161069 0.0037411056 0.0026439137 0.00075301435 0.002342638 -0.0074853483 -0.009355918 0.0023482724 0.006160278 0.007991349 0.005736693 -0.000772584 0.008308806 -0.009342492 0.0034208065 0.00026989245 0.0038456314 0.00737874 -0.0067272494 0.0055739474 -0.009528498 -0.00079785375 -0.008699336 -0.005093269 0.00928548 -0.001858893 0.0029176068 0.009076562 0.008933615 -0.00821913 -0.003012466 0.009899032 0.005096982 -0.0015963055 -0.008695041 0.0029571375 -0.006670115
music 0.008138055 -0.0044505415 -0.0010678455 0.0010163581 -0.00019218193 0.0011447076 0.0061264723 -6.8479603e-06 -0.0032714666 -0.0015241468 0.005893851 0.0015173331 -0.00074178935 0.009331006 -0.0049244147 -0.0008535397 0.009178909 0.006749976 0.0014946104 -0.008917738 0.0011369443 -0.0023052006 0.009395511 0.0012029358 0.0014662073 0.0024018646 -0.001849659 -0.0049851863 0.00021948312 -0.0019973163 0.0066150003 0.008933308 -0.00068135915 0.0029529154 -0.0061090617 0.0017027694 -0.006931891 -0.008689951 -0.005913992 -0.008964149 0.007297133 -0.0057958546 0.008264205 -0.007229639 0.0034372043 0.00966814 -0.007779587 -0.009949292 -0.004319614 -0.0026801755 -0.00026411755 -0.008852934 -0.008587172 0.0028039056 -0.00824 -0.009071656 -0.0023486353 -0.008640662 -0.007071627 -0.008416495 -0.0002801546 -0.004574276 0.006642261 0.0015256616 -0.0033484485 0.0061327023 -0.0060008615 -0.004628931 -0.007236263 -0.004338619 -0.0018172531 0.006514866 -0.0027566361 0.0049348823 0.006910016 -0.0074490122 0.004556161 0.006149653 -0.0029452431 0.0066065313 0.0061134393 -0.006451795 -0.0067807175 0.0025268309 -0.0016195471 -0.0060929824 0.009507796 -0.0051268665 -0.0065484326 -0.00011860103 -0.0026868803 0.00044039323 -0.0035594157 -0.00041936498 -0.00068685634 0.0008111222 0.008194769 -0.0057505267 -0.0016611214 0.005569334
still 0.008163516 -0.0044384035 0.008978825 0.008265734 -0.0044275355 0.0003106502 0.004289618 -0.0039235847 -0.005575746 -0.0065112268 -0.0006826686 -0.00028908002 0.0044409656 -0.0024669596 -0.00018163613 0.0024477611 0.004869454 -1.9684436e-05 -0.006344528 -0.009278828 2.3222146e-05 0.006648884 0.0014865253 -0.008963762 -0.007949826 0.006550538 -0.0037927441 0.0062652724 -0.006699371 0.008489883 -0.00649877 0.00328728 -0.0010690044 -0.006816034 -0.0032876527 -0.0011657629 -0.005480023 -0.0012072569 -0.0075669554 0.0026424201 0.009090743 -0.002400486 -0.0009832245 0.0035189162 0.008684883 -0.005920911 -0.0068831304 -0.002938835 0.009162201 0.00085964426 -0.008668521 -0.0014622066 0.009508189 -0.0075517274 -0.005384849 0.009314324 -0.0089789415 0.003815868 0.0006473052 0.0066447877 0.008335537 -0.0028599438 -0.003985878 0.008897078 0.002093795 0.006262101 -0.00942876 0.009616202 -0.0013698111 -0.0060468996 0.0029803202 -0.0004482763 0.0047171013 -0.0022745102 -0.004133558 0.0022799883 0.008343294 -0.0049697957 0.002681207 -0.008010769 -0.006790095 -0.00048603409 -0.008781778 0.002771829 0.0016040702 -0.0023455676 0.005022657 0.009749058 0.00844484 -0.001888876 0.0020642043 -0.0040117716 -0.008253565 0.0062687625 -0.0019354518 -0.0006749743 -0.001769597 -0.00454093 0.0040546134 -0.0042625847
words -0.009579007 0.008943433 0.00416487 0.009234229 0.006643456 0.0029246164 0.009803839 -0.0044239834 -0.006803194 0.004227822 0.0037292677 -0.0056646117 0.009704451 -0.0035580115 0.0095492825 0.0008344714 -0.0063387943 -0.001976855 -0.00737678 -0.0029794923 0.0010419926 0.009482228 0.009356195 -0.0065951827 0.0034756588 0.002275276 -0.0024890804 -0.009229165 0.0010271313 -0.00816625 0.0063200393 -0.005800261 0.0055361902 0.009833774 -0.00015937342 0.0045281295 -0.0018088769 0.007360622 0.00394038 -0.009010579 -0.0023997647 0.003629086 -0.00010027872 -0.0012010154 -0.0010560274 -0.0016718536 0.00060523755 0.0041655716 -0.0042532263 -0.0038335286 -5.272568e-05 0.0002698773 -0.00016942366 -0.0047854166 0.0043143504 -0.002172748 0.0021037133 0.0006659154 0.0059698285 -0.0068422533 -0.006816464 -0.0044764318 0.009435777 -0.0015924907 -0.009429782 -0.00054529984 -0.0044481913 0.005999942 -0.009583643 0.0028598816 -0.009252857 0.0012503858 0.005998666 0.007397342 -0.00762104 -0.006052573 -0.006838432 -0.007918229 -0.009499328 -0.0021256052 -0.0008358618 -0.0072558913 0.0067880587 0.0011199503 0.0058280695 0.0014732422 0.0007894631 -0.0073688296 -0.0021773914 0.0043213796 -0.0050850725 0.0011307289 0.002884311 -0.001536762 0.009932501 0.008349684 0.0024158997 0.0071184463 0.005891352 -0.005580251
contain -0.0051579396 -0.0066698217 -0.0077765738 0.008309547 -0.0019827285 -0.0068524363 -0.0041517485 0.005142977 -0.0028717532 -0.0037509298 0.0016189722 -0.002776259 -0.001584917 0.0010735636 -0.0029795363 0.008518859 0.0039131953 -0.009956419 0.00625921 -0.006756795 0.0007683916 0.004404357 -0.005098954 -0.0021090694 0.008092606 -0.004240279 -0.007635206 0.009257549 -0.0021587736 -0.004715359 0.008573719 0.0042848643 0.004322318 0.00927983 -0.008452674 0.005255935 0.002037449 0.004189085 0.0016968811 0.0044659604 0.004494142 0.0061003277 -0.0032039797 -0.004574696 -0.0004217965 0.0025325185 -0.0032657813 0.006055627 0.004156596 0.0077605187 0.0025689998 0.008114635 -0.0013838554 0.008074978 0.0037122953 -0.008046206 -0.00393672 -0.0024743406 0.0048917052 -0.0008741561 -0.0028268083 0.007831019 0.009325135 -0.001612418 -0.005157877 -0.0047000023 -0.00484786 -0.009599925 0.0013703615 -0.004227421 0.0025268432 0.005614412 -0.004064177 -0.009593801 0.0015457507 -0.0066990405 0.0024961634 -0.0037797568 0.007080758 0.0006389996 0.0035589598 -0.002744071 -0.0017115012 0.0076512 0.0014058737 -0.0058553014 -0.007830239 0.0012376957 0.006453246 0.0055527883 -0.008975989 0.00859207 0.004045552 0.0074687586 0.009746347 -0.0072897403 -0.009035491 0.005834213 0.009392986 0.0035053545
series 0.0070919087 -0.0015672942 0.007952043 -0.0094925575 -0.008030187 -0.0066407425 -0.0040018256 0.004996896 -0.0038183287 -0.008325768 0.008413652 -0.0037485047 0.008607894 -0.004897311 0.0039190026 0.0049169087 0.0023966322 -0.0028160636 0.0028477174 -0.008267578 -0.0027696306 -0.002596396 0.007259157 -0.0034631088 -0.006606085 0.004342962 -0.00047692598 -0.0035931047 0.006880168 0.0038790894 -0.003900345 0.0007710513 0.009144657 0.007751211 0.006362288 0.0046669533 0.0023826496 -0.0018453791 -0.0063773994 -0.00030383034 -0.0015639135 -0.0005750596 -0.0062674815 0.00743945 -0.00659096 -0.00724442 -0.0027554526 -0.0015195791 -0.007639135 0.00069916644 -0.0053253234 -0.0012822727 -0.00736471 0.0019574699 0.0032666635 -2.6777547e-05 -0.005453565 -0.0017292604 0.007085338 0.0037351223 -0.008881745 -0.0034193867 0.0023611248 0.0021391136 -0.009470726 0.0045787566 -0.008654347 -0.00738205 0.0034744868 -0.00347145 0.0035667415 0.00890495 -0.0035723983 0.009326964 0.0017130617 0.00985477 0.0057085115 -0.009148032 -0.0033307264 0.0065285577 0.0055997167 0.008707238 0.006924721 0.008042815 -0.009828395 0.0042937407 -0.0050253356 0.0035118102 0.006057508 0.004393089 0.0075172284 0.0014964072 -0.0012663172 0.005766983 -0.005634857 3.766394e-05 0.009464795 -0.0054859486 0.003817354 -0.008114899
cartoon 0.0097735515 0.008169827 0.0012869451 0.005100582 0.0014130195 -0.006455024 -0.0014192488 0.006462334 -0.0046309545 -0.0040044677 0.004925375 0.002711377 -0.0018537439 -0.00287536 0.00601236 -0.005727097 -0.0032242278 -0.0064782747 -0.004244612 -0.008604092 -0.00447654 -0.008522778 0.0014266658 -0.008623073 -0.009928557 -0.008197964 -0.0067782397 0.006693066 0.0037741659 0.00037170085 -0.0029503861 -0.007431941 0.00052732293 0.0004837827 0.00019303779 0.00085333287 0.00078286574 -7.2199415e-05 -0.008017705 -0.0058715516 -0.0083707785 -0.0013240132 0.0018140421 0.0074252575 -0.0019532547 -0.0023267814 0.009490808 6.934575e-05 -0.002404176 0.00860534 0.0026922275 -0.0053626243 0.0065952283 0.0045027444 -0.007077346 -0.00032600734 0.0008280628 0.005744057 -0.0017246733 -0.0028118654 0.0017552715 0.0008376265 0.0012053275 -0.0026326622 -0.005992226 0.007341787 0.0075963093 0.008313475 -0.00861816 0.0026358024 -0.0035595694 0.009635266 0.0029131195 0.0046555176 0.002388139 0.0066155605 -0.0057412456 0.007905761 -0.0024117588 -0.0045713033 -0.0020733972 0.009730692 -0.0068665585 -0.0021930106 0.0069984808 -7.310054e-05 -0.0062811337 -0.006396719 0.008942941 0.00642565 0.004779508 -0.0032662544 -0.00927474 0.0037809643 0.0071737217 -0.0056348024 -0.007851964 -0.0029845699 -0.0049317363 -0.0023164542
characters -0.0019468749 -0.0052653267 0.009448271 -0.00929595 0.004501405 0.0054028444 -0.001401024 0.009019994 0.009868651 -0.005480263 -0.0060200673 -0.0067474567 -0.007903281 -0.0030432518 -0.005598398 -0.008350914 0.0007901895 0.0030039607 0.006409733 -0.0026526966 -0.0044542043 0.0012399101 0.0004147314 0.008118267 0.00017738868 0.0072331447 -0.00826671 0.008444065 -0.0019030623 0.008709492 -0.0076091173 0.0017956169 0.0010602433 2.8524475e-05 -0.005099231 -0.009249366 -0.0072628837 -0.007951446 0.0019077332 0.0004767696 -0.0018066354 0.0071087303 -0.0024932553 -0.0013373073 -0.008891116 -0.0099309385 0.008946681 -0.0057541416 -0.006367551 0.005198285 0.0066697886 -0.0068372423 0.00096732116 -0.0060126944 0.0016374509 -0.004297299 -0.0034492435 0.002171692 0.008654876 0.0067251464 -0.009671241 -0.0056319325 0.007887918 0.0019872834 -0.0042643193 0.0006118809 0.009527994 -0.001088048 -0.009437322 0.001613493 0.006231625 0.0063001183 0.0040937923 -0.0056416565 -0.0003650321 -4.400424e-05 0.004576443 -0.008032261 -0.008013088 0.00025115474 -0.0086175185 0.0058133244 -0.00041693347 0.009971723 -0.005354853 -0.0005011895 0.0077697313 -0.00406829 -0.00501969 0.0015889376 0.0026588354 -0.0025675932 0.0064481185 -0.007663771 0.0034055822 0.0004865943 0.008741272 0.0059739994 0.0068180948 0.00782382
mouse -0.00950012 0.009562223 -0.0077707553 -0.0026455093 -0.004906409 -0.0049666977 -0.008023591 -0.0077835848 -0.0045532132 -0.0012753629 -0.0051029897 0.006140542 -0.009516621 -0.0053071044 0.009437151 0.006991329 0.0076758144 0.004234738 0.00050709245 -0.005981145 0.006018777 0.0026350308 0.0076994323 0.006393843 0.007942569 0.008657405 -0.009895756 -0.006755705 0.0013375735 0.0064403033 0.0073738145 0.00551698 0.007661624 -0.005125568 0.006584408 -0.004108374 -0.0090553425 0.009141679 0.0013314033 -0.0027596809 -0.0024778438 -0.0042204787 0.004812336 0.004400222 -0.0026533627 -0.007341881 -0.0035658525 -0.00033661604 0.006095891 -0.0028373385 -0.00012089491 0.00087972643 -0.0070956494 0.0020650006 -0.0014324236 0.0028021478 0.0048422217 -0.0013520193 -0.002780144 0.0077386475 0.0050455974 0.0067135217 0.004515643 0.008667154 0.007474968 -0.0010818887 0.008747637 0.004601717 0.0054406333 -0.0013860846 -0.0020413185 -0.0044243457 -0.008515198 0.003037727 0.008883192 0.008919742 -0.0019423557 0.0060861562 0.0037797235 -0.0042959666 0.002042923 -0.005437887 0.008208892 0.0054329084 0.003184433 0.0041025686 0.00865715 0.0072720335 -0.0008334732 -0.007072768 0.008380473 0.007233584 0.0017304707 -0.0013474918 -0.005890093 -0.0045330906 0.008647966 -0.0031351089 -0.0063388203 0.009870077
cat 0.007698939 0.0091217505 0.0011373988 -0.008324023 0.008424707 -0.0036987062 0.0057446095 0.00439413 0.009687856 -0.009297738 0.009211825 -0.0092812665 -0.0069085187 -0.009101411 -0.0055465256 0.0073683267 0.009167892 -0.0033253445 0.0037213024 -0.003629507 0.007880976 0.0058647026 6.17385e-06 -0.003629707 -0.007227922 0.0047693285 0.0014510385 -0.0026128949 0.007838501 -0.0040479647 -0.009147237 -0.0022551748 0.00012461239 -0.006640092 -0.005486798 -0.008497205 0.009229936 0.0074217874 -0.00029887768 0.0073665143 0.007954213 -0.0007863747 0.0066131796 0.0037669535 0.005078198 0.007254713 -0.004739732 -0.0021882406 0.0008720697 0.004236786 0.0033050897 0.005091047 0.004585782 -0.008437537 -0.0031885235 -0.0072370935 0.009681588 0.0050068125 0.00016952452 0.004111061 -0.0076560145 -0.0062952777 0.0030787608 0.0065342844 0.0039490866 0.006021328 -0.0019871655 -0.003344091 0.00020414637 -0.003196946 -0.0055172904 -0.007785906 0.0065363487 -0.0010858785 -0.001889228 -0.0078057395 0.009336499 0.0008707312 0.0017686868 0.002492195 -0.007386339 0.001640033 0.002975031 -0.0085670985 0.0049558636 0.002430831 0.007500532 0.0050435895 -0.003031425 -0.0071632783 0.0070970957 0.0019008394 0.0051952368 0.006381279 0.001913965 -0.006128131 -4.1378144e-06 0.0082639875 -0.006100561 0.00943824
